\data\
ngram 1=33
ngram 2=62
ngram 3=31

\1-grams:
-0.7782 </s> -0.3010
-0.7782 <s> -0.2218
-2.1004 A -0.2218
-2.4014 AMASE -0.2218
-2.4014 AN -0.2218
-2.4014 AND -0.2218
-2.4014 AT -0.2218
-2.4014 B -0.2218
-2.4014 C -0.2218
-2.4014 D -0.2218
-2.4014 E -0.2218
-2.1004 EIGHT -0.2218
-2.4014 EXECUTE -0.2218
-2.4014 F -0.2218
-2.1004 FIVE -0.2218
-2.1004 FOUR -0.2218
-2.4014 G -0.2218
-2.4014 HERE -0.2218
-2.4014 LET -0.2218
-2.4014 LOCATION -0.2218
-2.4014 LOITER -0.2218
-2.1004 NINE -0.2218
-2.1004 ONE -0.2218
-2.4014 OTHER -0.2218
-2.4014 SEARCH -0.2218
-2.1004 SEVEN -0.2218
-2.1004 SIX -0.2218
-2.4014 START -0.2218
-2.1004 THREE -0.2218
-2.4014 TRACK -0.2218
-2.1004 TWO -0.2218
-2.1004 UAV -0.2218
-2.4014 WORDS -0.2218

\2-grams:
-1.6232 <s> A 0.0000
-1.9243 <s> AMASE 0.0000
-1.9243 <s> AN 0.0000
-1.9243 <s> AND 0.0000
-1.9243 <s> AT 0.0000
-1.9243 <s> B 0.0000
-1.9243 <s> C 0.0000
-1.9243 <s> D 0.0000
-1.9243 <s> E 0.0000
-1.6232 <s> EIGHT 0.0000
-1.9243 <s> EXECUTE 0.0000
-1.9243 <s> F 0.0000
-1.6232 <s> FIVE 0.0000
-1.6232 <s> FOUR 0.0000
-1.9243 <s> G 0.0000
-1.9243 <s> HERE 0.0000
-1.9243 <s> LET 0.0000
-1.9243 <s> LOCATION 0.0000
-1.9243 <s> LOITER 0.0000
-1.6232 <s> NINE 0.0000
-1.6232 <s> ONE 0.0000
-1.9243 <s> OTHER 0.0000
-1.9243 <s> SEARCH 0.0000
-1.6232 <s> SEVEN 0.0000
-1.6232 <s> SIX 0.0000
-1.9243 <s> START 0.0000
-1.6232 <s> THREE 0.0000
-1.9243 <s> TRACK 0.0000
-1.6232 <s> TWO 0.0000
-1.6232 <s> UAV 0.0000
-1.9243 <s> WORDS 0.0000
-0.3010 A </s> -0.3010
-0.3010 AMASE </s> -0.3010
-0.3010 AN </s> -0.3010
-0.3010 AND </s> -0.3010
-0.3010 AT </s> -0.3010
-0.3010 B </s> -0.3010
-0.3010 C </s> -0.3010
-0.3010 D </s> -0.3010
-0.3010 E </s> -0.3010
-0.3010 EIGHT </s> -0.3010
-0.3010 EXECUTE </s> -0.3010
-0.3010 F </s> -0.3010
-0.3010 FIVE </s> -0.3010
-0.3010 FOUR </s> -0.3010
-0.3010 G </s> -0.3010
-0.3010 HERE </s> -0.3010
-0.3010 LET </s> -0.3010
-0.3010 LOCATION </s> -0.3010
-0.3010 LOITER </s> -0.3010
-0.3010 NINE </s> -0.3010
-0.3010 ONE </s> -0.3010
-0.3010 OTHER </s> -0.3010
-0.3010 SEARCH </s> -0.3010
-0.3010 SEVEN </s> -0.3010
-0.3010 SIX </s> -0.3010
-0.3010 START </s> -0.3010
-0.3010 THREE </s> -0.3010
-0.3010 TRACK </s> -0.3010
-0.3010 TWO </s> -0.3010
-0.3010 UAV </s> -0.3010
-0.3010 WORDS </s> -0.3010

\3-grams:
-0.3010 <s> A </s>
-0.3010 <s> AMASE </s>
-0.3010 <s> AN </s>
-0.3010 <s> AND </s>
-0.3010 <s> AT </s>
-0.3010 <s> B </s>
-0.3010 <s> C </s>
-0.3010 <s> D </s>
-0.3010 <s> E </s>
-0.3010 <s> EIGHT </s>
-0.3010 <s> EXECUTE </s>
-0.3010 <s> F </s>
-0.3010 <s> FIVE </s>
-0.3010 <s> FOUR </s>
-0.3010 <s> G </s>
-0.3010 <s> HERE </s>
-0.3010 <s> LET </s>
-0.3010 <s> LOCATION </s>
-0.3010 <s> LOITER </s>
-0.3010 <s> NINE </s>
-0.3010 <s> ONE </s>
-0.3010 <s> OTHER </s>
-0.3010 <s> SEARCH </s>
-0.3010 <s> SEVEN </s>
-0.3010 <s> SIX </s>
-0.3010 <s> START </s>
-0.3010 <s> THREE </s>
-0.3010 <s> TRACK </s>
-0.3010 <s> TWO </s>
-0.3010 <s> UAV </s>
-0.3010 <s> WORDS </s>

\end\