Language model created by QuickLM on Tue Nov  8 16:57:07 EST 2016
Copyright (c) 1996-2010 Carnegie Mellon University and Alexander I. Rudnicky

The model is in standard ARPA format, designed by Doug Paul while he was at MITRE.

The code that was used to produce this language model is available in Open Source.
Please visit http://www.speech.cs.cmu.edu/tools/ for more information

The (fixed) discount mass is 0.5. The backoffs are computed using the ratio method.
This model based on a corpus of 4 sentences and 6 words

\data\
ngram 1=6
ngram 2=8
ngram 3=4

\1-grams:
-0.7782 </s> -0.3010
-0.7782 <s> -0.2218
-1.3802 EAST -0.2218
-1.3802 NORTH -0.2218
-1.3802 SOUTH -0.2218
-1.3802 WEST -0.2218

\2-grams:
-0.9031 <s> EAST 0.0000
-0.9031 <s> NORTH 0.0000
-0.9031 <s> SOUTH 0.0000
-0.9031 <s> WEST 0.0000
-0.3010 EAST </s> -0.3010
-0.3010 NORTH </s> -0.3010
-0.3010 SOUTH </s> -0.3010
-0.3010 WEST </s> -0.3010

\3-grams:
-0.3010 <s> EAST </s>
-0.3010 <s> NORTH </s>
-0.3010 <s> SOUTH </s>
-0.3010 <s> WEST </s>

\end\
