
\data\
ngram 1=23
ngram 2=42
ngram 3=21

\1-grams:
-0.7782 </s> -0.3010
-0.7782 <s> -0.2218
-2.1004 ABORT -0.2218
-2.1004 AMASE -0.2218
-2.1004 BACKWARD -0.2218
-2.1004 DOWN -0.2218
-2.1004 FASTER -0.2218
-2.1004 FORWARD -0.2218
-2.1004 GO -0.2218
-2.1004 HALT -0.2218
-2.1004 HERE -0.2218
-2.1004 LEFT -0.2218
-2.1004 MOVE -0.2218
-2.1004 OTHER -0.2218
-2.1004 RIGHT -0.2218
-2.1004 SLOW -0.2218
-2.1004 SLOWER -0.2218
-2.1004 SPEED -0.2218
-2.1004 START -0.2218
-2.1004 STOP -0.2218
-2.1004 TURN -0.2218
-2.1004 UP -0.2218
-2.1004 WORDS -0.2218

\2-grams:
-1.6232 <s> ABORT 0.0000
-1.6232 <s> AMASE 0.0000
-1.6232 <s> BACKWARD 0.0000
-1.6232 <s> DOWN 0.0000
-1.6232 <s> FASTER 0.0000
-1.6232 <s> FORWARD 0.0000
-1.6232 <s> GO 0.0000
-1.6232 <s> HALT 0.0000
-1.6232 <s> HERE 0.0000
-1.6232 <s> LEFT 0.0000
-1.6232 <s> MOVE 0.0000
-1.6232 <s> OTHER 0.0000
-1.6232 <s> RIGHT 0.0000
-1.6232 <s> SLOW 0.0000
-1.6232 <s> SLOWER 0.0000
-1.6232 <s> SPEED 0.0000
-1.6232 <s> START 0.0000
-1.6232 <s> STOP 0.0000
-1.6232 <s> TURN 0.0000
-1.6232 <s> UP 0.0000
-1.6232 <s> WORDS 0.0000
-0.3010 ABORT </s> -0.3010
-0.3010 AMASE </s> -0.3010
-0.3010 BACKWARD </s> -0.3010
-0.3010 DOWN </s> -0.3010
-0.3010 FASTER </s> -0.3010
-0.3010 FORWARD </s> -0.3010
-0.3010 GO </s> -0.3010
-0.3010 HALT </s> -0.3010
-0.3010 HERE </s> -0.3010
-0.3010 LEFT </s> -0.3010
-0.3010 MOVE </s> -0.3010
-0.3010 OTHER </s> -0.3010
-0.3010 RIGHT </s> -0.3010
-0.3010 SLOW </s> -0.3010
-0.3010 SLOWER </s> -0.3010
-0.3010 SPEED </s> -0.3010
-0.3010 START </s> -0.3010
-0.3010 STOP </s> -0.3010
-0.3010 TURN </s> -0.3010
-0.3010 UP </s> -0.3010
-0.3010 WORDS </s> -0.3010

\3-grams:
-0.3010 <s> ABORT </s>
-0.3010 <s> AMASE </s>
-0.3010 <s> BACKWARD </s>
-0.3010 <s> DOWN </s>
-0.3010 <s> FASTER </s>
-0.3010 <s> FORWARD </s>
-0.3010 <s> GO </s>
-0.3010 <s> HALT </s>
-0.3010 <s> HERE </s>
-0.3010 <s> LEFT </s>
-0.3010 <s> MOVE </s>
-0.3010 <s> OTHER </s>
-0.3010 <s> RIGHT </s>
-0.3010 <s> SLOW </s>
-0.3010 <s> SLOWER </s>
-0.3010 <s> SPEED </s>
-0.3010 <s> START </s>
-0.3010 <s> STOP </s>
-0.3010 <s> TURN </s>
-0.3010 <s> UP </s>
-0.3010 <s> WORDS </s>

\end\